digraph Tree {
node [shape=box, style="filled, rounded", color="black", fontname="helvetica"] ;
edge [fontname="helvetica"] ;
0 [label="X[5] <= 1609.5\ngini = 0.05\nsamples = 112902\nvalue = [173707, 4549]", fillcolor="#e6843e"] ;
1 [label="X[5] <= 227.5\ngini = 0.049\nsamples = 112840\nvalue = [173679, 4473]", fillcolor="#e6843e"] ;
0 -> 1 [labeldistance=2.5, labelangle=45, headlabel="True"] ;
2 [label="X[9] <= 0.5\ngini = 0.076\nsamples = 7245\nvalue = [10858, 445]", fillcolor="#e68641"] ;
1 -> 2 ;
3 [label="X[8] <= 20180405.0\ngini = 0.079\nsamples = 6586\nvalue = [9852, 426]", fillcolor="#e68642"] ;
2 -> 3 ;
4 [label="X[8] <= 20131202.0\ngini = 0.087\nsamples = 5750\nvalue = [8548, 408]", fillcolor="#e68742"] ;
3 -> 4 ;
5 [label="X[8] <= 19740374.0\ngini = 0.069\nsamples = 3855\nvalue = [5800, 216]", fillcolor="#e68640"] ;
4 -> 5 ;
6 [label="(...)", fillcolor="#C0C0C0"] ;
5 -> 6 ;
11 [label="(...)", fillcolor="#C0C0C0"] ;
5 -> 11 ;
18 [label="X[10] <= 63380.0\ngini = 0.122\nsamples = 1895\nvalue = [2748, 192]", fillcolor="#e78a47"] ;
4 -> 18 ;
19 [label="(...)", fillcolor="#C0C0C0"] ;
18 -> 19 ;
24 [label="(...)", fillcolor="#C0C0C0"] ;
18 -> 24 ;
31 [label="X[8] <= 20200811.0\ngini = 0.027\nsamples = 836\nvalue = [1304, 18]", fillcolor="#e5833c"] ;
3 -> 31 ;
32 [label="X[2] <= 0.5\ngini = 0.03\nsamples = 753\nvalue = [1176, 18]", fillcolor="#e5833c"] ;
31 -> 32 ;
33 [label="(...)", fillcolor="#C0C0C0"] ;
32 -> 33 ;
38 [label="(...)", fillcolor="#C0C0C0"] ;
32 -> 38 ;
39 [label="gini = 0.0\nsamples = 83\nvalue = [128, 0]", fillcolor="#e58139"] ;
31 -> 39 ;
40 [label="X[8] <= 20150167.0\ngini = 0.036\nsamples = 659\nvalue = [1006, 19]", fillcolor="#e5833d"] ;
2 -> 40 ;
41 [label="X[11] <= 30.5\ngini = 0.018\nsamples = 506\nvalue = [778, 7]", fillcolor="#e5823b"] ;
40 -> 41 ;
42 [label="X[9] <= 6.5\ngini = 0.013\nsamples = 476\nvalue = [733, 5]", fillcolor="#e5823a"] ;
41 -> 42 ;
43 [label="(...)", fillcolor="#C0C0C0"] ;
42 -> 43 ;
48 [label="(...)", fillcolor="#C0C0C0"] ;
42 -> 48 ;
53 [label="X[10] <= 55558.0\ngini = 0.081\nsamples = 30\nvalue = [45, 2]", fillcolor="#e68742"] ;
41 -> 53 ;
54 [label="(...)", fillcolor="#C0C0C0"] ;
53 -> 54 ;
55 [label="(...)", fillcolor="#C0C0C0"] ;
53 -> 55 ;
58 [label="X[5] <= 17.5\ngini = 0.095\nsamples = 153\nvalue = [228, 12]", fillcolor="#e68843"] ;
40 -> 58 ;
59 [label="X[9] <= 4.5\ngini = 0.32\nsamples = 18\nvalue = [24, 6]", fillcolor="#eca06a"] ;
58 -> 59 ;
60 [label="(...)", fillcolor="#C0C0C0"] ;
59 -> 60 ;
65 [label="(...)", fillcolor="#C0C0C0"] ;
59 -> 65 ;
66 [label="X[5] <= 39.5\ngini = 0.056\nsamples = 135\nvalue = [204, 6]", fillcolor="#e6853f"] ;
58 -> 66 ;
67 [label="(...)", fillcolor="#C0C0C0"] ;
66 -> 67 ;
68 [label="(...)", fillcolor="#C0C0C0"] ;
66 -> 68 ;
75 [label="X[8] <= 20100566.0\ngini = 0.047\nsamples = 105595\nvalue = [162821, 4028]", fillcolor="#e6843e"] ;
1 -> 75 ;
76 [label="X[11] <= 3.5\ngini = 0.036\nsamples = 50063\nvalue = [77709, 1446]", fillcolor="#e5833d"] ;
75 -> 76 ;
77 [label="X[8] <= 20070223.0\ngini = 0.059\nsamples = 4825\nvalue = [7392, 232]", fillcolor="#e6853f"] ;
76 -> 77 ;
78 [label="X[8] <= 20060464.0\ngini = 0.067\nsamples = 3125\nvalue = [4736, 170]", fillcolor="#e68640"] ;
77 -> 78 ;
79 [label="(...)", fillcolor="#C0C0C0"] ;
78 -> 79 ;
86 [label="(...)", fillcolor="#C0C0C0"] ;
78 -> 86 ;
91 [label="X[10] <= 29734.5\ngini = 0.045\nsamples = 1700\nvalue = [2656, 62]", fillcolor="#e6843e"] ;
77 -> 91 ;
92 [label="(...)", fillcolor="#C0C0C0"] ;
91 -> 92 ;
97 [label="(...)", fillcolor="#C0C0C0"] ;
91 -> 97 ;
104 [label="X[2] <= 0.5\ngini = 0.033\nsamples = 45238\nvalue = [70317, 1214]", fillcolor="#e5833c"] ;
76 -> 104 ;
105 [label="X[8] <= 20010826.0\ngini = 0.028\nsamples = 43621\nvalue = [67985, 967]", fillcolor="#e5833c"] ;
104 -> 105 ;
106 [label="(...)", fillcolor="#C0C0C0"] ;
105 -> 106 ;
113 [label="(...)", fillcolor="#C0C0C0"] ;
105 -> 113 ;
120 [label="X[3] <= 0.5\ngini = 0.173\nsamples = 1617\nvalue = [2332, 247]", fillcolor="#e88e4e"] ;
104 -> 120 ;
121 [label="(...)", fillcolor="#C0C0C0"] ;
120 -> 121 ;
128 [label="(...)", fillcolor="#C0C0C0"] ;
120 -> 128 ;
131 [label="X[2] <= 0.5\ngini = 0.057\nsamples = 55532\nvalue = [85112, 2582]", fillcolor="#e6853f"] ;
75 -> 131 ;
132 [label="X[8] <= 20190111.0\ngini = 0.054\nsamples = 54865\nvalue = [84211, 2421]", fillcolor="#e6853f"] ;
131 -> 132 ;
133 [label="X[5] <= 1305.5\ngini = 0.062\nsamples = 45757\nvalue = [69972, 2298]", fillcolor="#e68540"] ;
132 -> 133 ;
134 [label="(...)", fillcolor="#C0C0C0"] ;
133 -> 134 ;
141 [label="(...)", fillcolor="#C0C0C0"] ;
133 -> 141 ;
146 [label="X[8] <= 20200219.0\ngini = 0.017\nsamples = 9108\nvalue = [14239, 123]", fillcolor="#e5823b"] ;
132 -> 146 ;
147 [label="(...)", fillcolor="#C0C0C0"] ;
146 -> 147 ;
154 [label="(...)", fillcolor="#C0C0C0"] ;
146 -> 154 ;
161 [label="X[3] <= 0.5\ngini = 0.257\nsamples = 667\nvalue = [901, 161]", fillcolor="#ea985c"] ;
131 -> 161 ;
162 [label="X[11] <= 58.0\ngini = 0.258\nsamples = 666\nvalue = [899, 161]", fillcolor="#ea985c"] ;
161 -> 162 ;
163 [label="(...)", fillcolor="#C0C0C0"] ;
162 -> 163 ;
170 [label="(...)", fillcolor="#C0C0C0"] ;
162 -> 170 ;
177 [label="gini = 0.0\nsamples = 1\nvalue = [2, 0]", fillcolor="#e58139"] ;
161 -> 177 ;
178 [label="X[2] <= 0.5\ngini = 0.393\nsamples = 62\nvalue = [28, 76]", fillcolor="#82c1ef"] ;
0 -> 178 [labeldistance=2.5, labelangle=-45, headlabel="False"] ;
179 [label="X[10] <= 83242.0\ngini = 0.142\nsamples = 19\nvalue = [24, 2]", fillcolor="#e78c49"] ;
178 -> 179 ;
180 [label="gini = 0.0\nsamples = 14\nvalue = [21, 0]", fillcolor="#e58139"] ;
179 -> 180 ;
181 [label="X[11] <= 1.5\ngini = 0.48\nsamples = 5\nvalue = [3, 2]", fillcolor="#f6d5bd"] ;
179 -> 181 ;
182 [label="gini = 0.0\nsamples = 3\nvalue = [3, 0]", fillcolor="#e58139"] ;
181 -> 182 ;
183 [label="gini = 0.0\nsamples = 2\nvalue = [0, 2]", fillcolor="#399de5"] ;
181 -> 183 ;
184 [label="X[10] <= 89452.5\ngini = 0.097\nsamples = 43\nvalue = [4, 74]", fillcolor="#44a2e6"] ;
178 -> 184 ;
185 [label="X[8] <= 20105750.0\ngini = 0.32\nsamples = 3\nvalue = [1, 4]", fillcolor="#6ab6ec"] ;
184 -> 185 ;
186 [label="gini = 0.0\nsamples = 1\nvalue = [0, 3]", fillcolor="#399de5"] ;
185 -> 186 ;
187 [label="gini = 0.5\nsamples = 2\nvalue = [1, 1]", fillcolor="#ffffff"] ;
185 -> 187 ;
188 [label="X[11] <= 9.5\ngini = 0.079\nsamples = 40\nvalue = [3, 70]", fillcolor="#41a1e6"] ;
184 -> 188 ;
189 [label="X[8] <= 20110918.0\ngini = 0.153\nsamples = 19\nvalue = [3, 33]", fillcolor="#4ba6e7"] ;
188 -> 189 ;
190 [label="X[8] <= 20050613.0\ngini = 0.061\nsamples = 17\nvalue = [1, 31]", fillcolor="#3fa0e6"] ;
189 -> 190 ;
191 [label="(...)", fillcolor="#C0C0C0"] ;
190 -> 191 ;
192 [label="(...)", fillcolor="#C0C0C0"] ;
190 -> 192 ;
197 [label="gini = 0.5\nsamples = 2\nvalue = [2, 2]", fillcolor="#ffffff"] ;
189 -> 197 ;
198 [label="gini = 0.0\nsamples = 21\nvalue = [0, 37]", fillcolor="#399de5"] ;
188 -> 198 ;
}